4,4,4,20,20,20,20,1
0.000000000000000000e+00,0.000000000000000000e+00,0.000000000000000000e+00,0.000000000000000000e+00,0.000000000000000000e+00,0.000000000000000000e+00,0.000000000000000000e+00,0.000000000000000000e+00,0.000000000000000000e+00,0.000000000000000000e+00,0.000000000000000000e+00,0.000000000000000000e+00,0.000000000000000000e+00,0.000000000000000000e+00,0.000000000000000000e+00,0.000000000000000000e+00,4.105455545814584717e-02,-7.997122181328089052e-01,-2.543199153147163161e-01,-2.920942259875526137e+00,-1.006741194864528177e+00,-1.280337271629193863e-01,3.636800356410794799e-01,-1.987713930087041947e-01,5.521453267471498894e-01,-2.627448104133479068e-01,3.444000222099150577e-01,-1.522516803145382625e+00,-7.245444275612576979e-01,-5.228267035110023553e-01,-1.074068553350493893e+00,-1.189655385424384093e+00,-2.574714814148431508e+00,-3.031323729432181535e-01,-5.886598053502243300e-01,1.977097207406637747e+00,-1.450784835516520099e-01,8.633315945723604168e-01,1.478263402668944515e-01,2.958196872075951056e+00,1.085915625428521381e+00,1.988963682650096154e-01,-4.885969114075075503e-01,3.617274145962948162e-01,-4.490529549506733220e-01,1.855574882196955530e-02,-1.601075320795456725e-01,1.410610839966077501e+00,6.750584100766858775e-01,3.984608147852536919e-01,6.295126205870579250e-01,1.372560327115844414e+00,2.402732408272810982e+00,2.077880610192766875e-01,5.658918425041020717e-01,-2.040954631966825694e+00,-4.439254488622986217e-01,-5.549554320134777452e-01,-6.359197443895756030e-02,-4.084837961940610995e+00,-1.066612265055937758e+00,1.516659348731179968e-01,-3.737330685910462136e-01,-2.560089623592063934e-01,-4.409844671565064544e+00,-3.211383556973863018e-01,8.535489438404833540e-02,9.114659761872468957e-01,4.110334358351004913e-01,-3.723046007678757485e-01,-6.914783159309407790e-01,-6.189822547707661826e-01,5.739285649368561781e-01,-3.418423380087542429e-01,-2.199340769616204283e-01,-1.330488542455373846e+00,-6.985214559631330866e-01,-3.303754424706662474e-01,-1.591943227650103876e-01,-9.042848151246694055e-01,-3.573018366274148261e-01,-4.747170787261126984e-02,1.461863221677819034e-02,-3.031640522616672051e-01,-1.144372191602187172e+00,-4.172523764265667623e-01,5.695746088178197386e-01,7.996241269582144220e-03,-3.979924826430650264e-02,-2.652174632460596038e-01,-2.899945449807410647e-01,-4.483645829859584930e-01,-4.046158114154714269e+00,-3.198874111956143129e-01,-2.305289942285163596e-01,-1.404477533272510570e+00,2.954387669286750659e-02,-8.469815357600142536e-02,-8.773180476092344582e-02,7.004820676373330057e-02,-3.068750203198889470e-01,-1.192548516545771740e-03,2.677185130516509821e-03,-3.894158625089883669e-02,-3.204927485896522654e-01,1.180271804797130980e-01,-2.871568339331745118e-03,8.427008805511447542e-02,9.189660917181197153e-02,-8.075385998817492805e-02,8.208340809478062439e-02,-2.650603814480037915e-02,9.730661788952833791e-02,-4.322766722866581285e-02,5.098582781241126766e-02,-7.876568753716070570e-02,-1.151960982172952341e-01,1.250931423880073945e-01,3.298122375189058153e-01,-1.872659859387416359e-01,5.913677981492283520e-01,-3.549104032034479383e-02,-3.418279385455118002e-01,-2.548075256703323244e-01,1.640131444168278496e-01,-2.050526439882296437e-01,2.385068543032476951e-01,-8.889683814195259437e-02,-2.735527732008705137e-01,-2.507688961372883663e-02,1.696931279146232929e-01,2.274601235602874416e-01,-1.480018148078036111e-01,-1.666622888896027166e-01,-1.860932719301801042e-01,-2.794451252627787041e-01,7.896992671622558857e-02,-4.580233633309519631e-02,-1.371507416102953347e-01,3.358889369733722430e-02,1.016147364045264651e-01,1.812654707015319902e-02,-1.980296356310898009e-01,2.608100593760411326e-02,-1.094652180625872995e-01,8.972663196948332809e-02,-8.635162369456396425e-02,7.196640410214480421e-02,-1.373044966224727659e-01,2.759498656159706589e-02,-1.266385077407933268e-01,1.319252317301364830e-01,3.844166501822680881e-02,-5.106355194361103522e-02,-1.001426466713436075e-01,-2.835296261994401101e-01,1.042805737663954867e-02,1.253868512280034708e-01,1.020197190590962366e+00,7.275399011027328111e-02,3.382737634160990048e+00,1.871563699086847554e-01,-2.044893362278406013e-01,-1.079394703875733164e-01,1.101499467117817543e+00,-9.017288442060830689e-02,3.394466123758590470e-01,-8.098486044056329991e-02,-1.604802474227272346e-01,-9.309146505229852486e-02,3.491878058128828899e-01,1.534710476467338325e-01,-3.158721732447544034e-02,7.285105166539600219e-02,-2.326974972827175470e-02,-2.130256258090884314e-01,-3.164673511488208524e-01,2.383253267856925151e-01,3.471813528365593204e-01,-3.255950210332971273e-01,1.192917681534310992e+00,-2.137898110440324823e-02,-1.938617578043760614e-01,-1.605120158459124036e-01,3.232420397334048179e-01,-2.000291400689407084e-01,2.555713336204142871e-01,-1.460722773097909710e-01,-2.792576041684788346e-01,2.248438901837099546e-01,3.037772572806234916e-01,2.949173920300150464e-01,-2.631909964740731800e-01,-3.090495374688450037e-01,-4.023419429194567964e-01,-2.843943669377101968e-01,-1.459363018148052971e-01,4.137639892992533985e-02,-1.939385582078725079e-01,-2.368421526059685256e-01,-1.932163161501002646e-01,-2.099429617785925628e-01,-5.723787163654621424e-02,-1.671745303840242725e-01,-2.125975581325262043e-01,2.265589342112128007e-02,1.716994187613414546e-01,-1.584798342633796375e-01,-2.735732245997754900e-02,-9.919999562398679194e-02,-1.732000734875085990e-01,9.455000379847311454e-02,-1.549092179571234240e-01,-1.501486982820625371e-01,-8.254923850027248711e-02,-8.428342566312774231e-02,-1.000728084972328860e-02,5.628463834683742478e-02,-3.192266753101198340e-01,9.702261527839791191e-03,-5.959905759723419516e-01,8.429385181285109496e-02,-2.892166574581610423e-03,-1.991477652203879900e-01,-1.753766312202204858e-01,9.470931897739710836e-03,-1.287693186554596525e-01,-1.486185359561792985e-01,9.031341926408743143e-03,-2.023980338906767318e-01,-1.677084246281428104e-01,-8.739773392539053332e-02,-6.123053331845536296e-02,-9.850934245338008322e-02,-1.763300976913435014e-01,-1.663378846446408599e-01,5.034288272094709221e-02,-9.625669324122505810e-02,-5.648020018885765298e-02,-2.186090450259728646e-01,2.409384688828280219e-01,-8.026256895073981268e-02,-6.070308610791187026e-02,-1.988432263346827378e-01,-2.409843051169471839e-01,-7.593171014554521425e-02,1.726521660926184920e-02,9.338275175897511882e-02,6.449282181089315003e-02,7.809650693818021017e-02,1.549069288433088665e-01,-7.154453296101519200e-02,-4.296945669070396934e-02,-6.102819196430100263e-02,5.365117720062805018e-02,-2.235687459650120001e-01,-1.555063171646292042e-01,-2.315962000760461159e-01,-7.819489121667615450e-01,1.040364142500794370e-01,-2.748503753904538716e+00,9.680312296392303006e-02,-1.075251047747119854e-01,-5.457436050200623057e-02,-8.950639121088758143e-01,1.399057779336346403e-02,-1.337899520024749545e-01,1.459555668085032454e-01,-9.762954971103771085e-02,9.286216697092199157e-02,-2.657173739514158139e-01,-9.268508845068024193e-02,2.759547987132136559e-01,4.884163788625543734e-03,-1.809080503050972955e-01,-6.210566186007895895e-02,-1.263081647451632372e-01,1.165211573939929496e-01,-7.251701603341952074e-02,-2.587758290941562511e-01,9.271613890891631030e-03,-1.637293641496571361e-01,8.119769992894830535e-02,-9.094700728251083055e-02,-1.835951356903766929e-01,-2.175348384033161386e-02,-2.829908416788357636e-03,-1.663269933184350624e-01,9.467524046373612667e-02,-1.163043254940150928e-01,8.523439048134196991e-03,-5.279929746102964699e-02,-1.839870884856950051e-01,2.750160153751878001e-02,6.187251206393661052e-02,-4.063050965771418908e-03,6.845562248471227795e-02,-3.207884262970148864e-02,-4.585793765623050744e-01,-2.228867695909442503e-01,-6.481673421148602676e-01,-1.827202174612237440e-01,-2.168435984690194607e-01,-2.851743120393416819e-01,-3.969579146621163290e-01,-2.586682281219980228e-01,-4.373258235393753107e-02,-2.024929706059331591e-01,-1.908999512197874782e-01,-2.124550537040817144e-01,-8.891749494526630937e-02,-2.154858757487850551e-01,-7.420684500398780359e-02,-6.011445246409644755e-02,3.120090351399685755e-02,-1.028892424271647399e-01,-3.342081038196333953e-01,-3.351233058514211521e-02,-2.596085707243834251e-01,-3.990736232490698088e-01,-1.179844227378058941e+00,-1.296901993734619618e-01,-2.400968245596860062e-01,-2.806705964418451105e-01,-2.886148726386445484e-01,-2.690887799131218006e-01,4.948039277603094588e-02,-1.838503387906800790e-02,-4.573937108569697263e-01,9.197458965210091042e-02,1.784124789514827669e-01,2.556876574536384727e-01,-3.726082216508180833e-01,-3.385050885881280558e-01,-2.825931788450674054e-01,-4.183534314012311572e-01,-2.028963889971170109e-01,-7.050657041245701750e-02,-1.148499182100011784e-01,-3.805428944377007849e-01,-2.532947422533884385e-01,-2.257125228425384267e-01,-1.889467775345904654e-01,-3.018932035918878154e-01,-1.579622578022562562e-01,-1.454284871807498720e-02,1.170535816256677991e-01,-2.343770222380330837e-01,-2.231389201141243950e-01,-2.242290849261841489e-03,4.275607249821045813e-02,1.288988276764694019e-01,-2.660831411194910512e-01,-3.201059152339942315e-01,-2.325648595627204107e-01,-1.066616121036966375e-01,-1.860080509319919362e-01,1.748969692427463363e-01,1.780938345232678088e-03,-1.454574951042698627e-01,3.982629946318320124e-01,-7.103093669097008955e-02,-3.804860001592709484e-02,-1.611214259900514145e-01,4.926843908799283939e-02,-3.695909621196219463e-02,1.430396668886697864e-01,-1.145821574783462693e-01,1.998114809689542984e-02,4.209705384796425670e-02,-3.250477134632026588e-02,-2.778280749538655434e-02,4.253118006822104689e-03,3.301131319653185375e-02,-1.299868412965410058e-01,-1.501110529909018276e-01,-6.679047811605623441e-02,1.492344284165614821e-01,4.081669857322108297e-01,-2.201519705921877179e-01,8.018885538479243458e-01,7.959522459146049778e-02,-8.325355992284681761e-02,-3.138001098783140264e-01,2.391428979894117124e-01,-1.622307629975280052e-01,1.071182296760628122e-01,-7.378936056130040722e-02,-2.635859618966392981e-01,1.729633494578560193e-01,4.653232923751541433e-02,3.877879429029095215e-01,-2.281179139886955198e-01,-2.693985413653865457e-01,-3.868037292352344281e-01,-3.585663224926994297e-01,-3.434194047415888851e-01,3.644189501171229972e-01,1.722977217472306255e-01,-2.502088052375601723e-01,8.989712350667291574e-01,-1.007642191565010642e-01,-3.600073365428104188e-01,-4.410759215925360022e-01,2.374372052123994714e-01,-3.652846537516354353e-01,2.020484342465884986e-01,-1.070796940521157592e-01,-4.436799351704548977e-01,2.621690136050380815e-02,1.762244519367374695e-01,2.882393689361469336e-01,-4.254076478951840379e-01,-5.333806718377221978e-01,-5.244245062165909799e-01,-4.081630512353918161e-01,2.780601538305310649e-01,9.203049624786982519e-02,4.768788935496647285e-01,7.079081616626425877e-02,2.567069182532563776e+00,8.027764090405029029e-02,2.879957641055689299e-01,1.072304807743624661e-01,6.719800384551454231e-01,7.098172696863903897e-02,7.235269676077618704e-04,1.172385971791720799e-01,3.073628120986819923e-01,1.577921878828154531e-02,1.209379446056615265e-02,-4.012311345879068791e-02,2.068796600798839258e-01,1.083326095532847477e-01,2.391560819927417980e-01,1.523326647349636520e-01,-7.387759712295881298e-02,1.406774999793194425e-01,7.342783826213040987e-02,-2.027621887248478583e-01,3.612268699013754941e-02,-6.929241938312552529e-02,5.645938400310974992e-02,1.053415687186002175e-01,2.681727260503228086e-02,8.926460697610293094e-02,-7.687695686790872902e-03,1.344026292103026876e-01,-6.678570710930364918e-02,-1.121599535387450414e-01,1.751855294399095597e-01,-2.937050672697530396e-02,3.713112567076474330e-02,-1.847949370494735843e-01,2.299273023329633653e-02,2.336474828607944948e-02,-2.220469352753074443e-01,1.225840639276654966e-02,-8.916171921527047892e-03,-1.280607542608161453e-01,2.376071834478962475e-01,-1.888646828934363586e-01,-1.854648193941416945e-01,-2.602174310376920152e-01,6.706128096874069966e-02,-2.209464120427971634e-01,1.145245394689352048e-01,5.656069132665670490e-02,-8.599249731470541558e-02,1.112852178112877649e-01,2.037264604605158735e-01,1.881638705953201374e-01,-9.128329606401087981e-02,-3.604341145574044281e-02,-3.351898097322685705e-02,-2.718547113599217302e-01,-2.219385849486978923e-01,-2.690337733328635461e-01,-4.583268544568039338e-01,-1.334437844340936596e-01,-2.443364653854898094e+00,-5.408778621165258489e-03,-6.276987879846298614e-03,2.298669901142340582e-03,-3.197214416885723054e-01,5.228543016134406390e-02,-2.764841147867832527e-01,-1.761608934655053624e-02,3.134704505072732905e-01,-2.000176658220005621e-01,-1.923465296083394227e-01,-2.937591476263585744e-01,1.046275167164047032e-01,-2.361095268217369703e-01,-4.124201973231393925e-01,-4.190321198923853685e-01,4.898257351156453665e-01,-4.534565098617278078e-01,-6.976077313160110593e-01,7.326110660941134167e-01,-2.996346082243027453e+00,4.711786250367511891e-02,4.371456911458306283e-01,1.027137149376105674e+00,-7.328561884793919345e-01,2.450957913179099001e-01,-4.763342527780248248e-01,1.543280144703868678e-02,8.374479261252351092e-01,-3.618155006941890517e-01,-4.491981294291388371e-01,-6.179136934964610806e-01,6.382230578261314236e-01,7.600371884230953112e-01,7.721576938488844410e-01,9.709114482001587332e-01
0.000000000000000000e+00,0.000000000000000000e+00,0.000000000000000000e+00,0.000000000000000000e+00,-3.668536120947048507e-01,9.567390390470617914e-03,-4.389618638349213064e-01,6.328179316002222610e-01,5.191463308978254698e-01,-2.764798360993300230e-01,-1.406950744671973119e-01,-3.511306137717056797e-01,6.366868503462610462e-01,-1.225831811957274059e-01,-1.022900603281616805e-01,-5.043152070757174199e-01,-2.333391338268570037e-01,-2.049435772883782536e-01,1.871120592767065438e-01,7.146231891967592675e-01,-6.777721415370769886e-01,-4.646486126489419166e-01,-1.704905264691553290e-01,6.086267707054371368e-01,-1.177242440531899165e-01,-3.309426770272584917e-01,-7.877571128551082991e-01,4.391999628583166670e-02,-9.518305386021268522e-01,-5.277376874703965798e-02,8.344113342444397716e-03,-1.736325510769929636e-01,-1.011371917215393879e+00,-1.603139110636630227e-01,-4.176520392096582657e-01,-2.086148505080957227e-01,1.399513092550342119e-01,-1.098031646743397316e-01,-3.027861966215081857e-01,-2.161920794035896431e-01,-1.198019779742173357e-01,-5.910424390309339249e-02,4.376107591618744880e-02,3.986920123036250679e-02,-4.068596529477006563e-01
