4,4,4,20,20,20,20,1
0.000000000000000000e+00,0.000000000000000000e+00,0.000000000000000000e+00,0.000000000000000000e+00,0.000000000000000000e+00,0.000000000000000000e+00,0.000000000000000000e+00,0.000000000000000000e+00,0.000000000000000000e+00,0.000000000000000000e+00,0.000000000000000000e+00,0.000000000000000000e+00,0.000000000000000000e+00,0.000000000000000000e+00,0.000000000000000000e+00,0.000000000000000000e+00,1.401870365930356355e-01,1.260558829253498880e-01,1.866767340880632897e-01,3.669344289680604443e-01,7.292307837441365514e-02,1.727838027131454457e-01,3.414386031279684208e-01,2.417550003211082210e-01,7.805526782827107990e-01,3.746863363025515481e-01,2.259818277208929527e-01,1.830261829419297104e-01,-5.092996845753518242e-02,5.405862182183710507e-01,1.879229226861772184e-01,-8.952844672731107012e-02,-2.077285245792224455e-01,3.547029298350306004e-01,4.316464983773985464e-01,4.057754459560795057e-01,-1.399846676363182552e-01,-1.233829593781974737e-01,-1.898685285171013426e-01,-3.661389610304099929e-01,-7.377488343074597998e-02,-1.729301591629753554e-01,-3.385128662117976583e-01,-2.349199026263962264e-01,-7.740114206872501512e-01,-3.662154610409988909e-01,-2.244242041440460966e-01,-1.792288251311719705e-01,5.099349184404082524e-02,-5.371243356715590389e-01,-1.909544392207419561e-01,8.845784696185381157e-02,2.080148160116039591e-01,-3.515830611580145759e-01,-4.257984226570246666e-01,-4.019802918430354088e-01,-1.138410140172265855e-01,4.592730835081652169e-02,1.505254311613261897e-01,5.376440207081369105e-02,4.136744383219655430e-01,6.504901053165879077e-02,2.095609492909654148e-01,-1.944779094071849568e-01,2.262881230995968940e-01,-2.549154409338297723e-03,2.940513562389699895e-02,-1.323509758259155678e-01,2.730844572482922228e-01,-1.656773001473806628e-01,-1.387282653777188179e-01,-1.566262213972192119e-01,9.075767536366911858e-02,-1.944138036240439793e-01,-1.891024023439200411e-02,-3.872796761081435252e-02,-1.691764816971753627e-01,-1.975470934753096597e-01,2.292246457723890740e-01,1.261336576882059191e-02,-2.218750759181220278e-01,-4.720643014056635084e-02,1.978738379249409263e-01,-1.420120867261079611e-01,1.275767016119179476e-01,-1.800253976514766818e-01,1.874846232419763725e-01,2.787646357498639593e-02,6.817428981820160272e-02,-5.592043560249278927e-02,2.710966229956960349e-01,-7.348039412329809839e-02,-1.864786814157252948e-01,-1.792226521000566120e-01,-3.924523974694910100e-02,-5.988767649176398450e-02,2.836188542164197468e-01,6.226077780899053060e-02,1.642423087533608217e-01,2.039235695025395645e-01,7.862649584698358507e-03,1.734767745366588010e-01,1.311063198061711843e-01,9.414628938849028961e-02,5.337580334341827416e-03,2.873887718746523379e-01,3.974844485396447635e-02,2.778446040424989993e-01,1.244102497481203579e-01,5.885133146480290428e-02,1.794983249546042992e-01,7.090679295830575046e-02,3.503462518411856741e-01,1.085107967615008412e-01,2.816484922267069591e-01,9.963976016525240287e-02,1.454767147430046648e-01,1.212626217384548122e-01,3.618819438424080714e-01,3.174587509188104423e-02,1.519898638190581019e-01,1.565448739149972179e-01,-1.005809126297095707e-01,-1.196562427766320880e-01,2.179368413766905599e-01,1.936046947320174683e-02,2.036347596659463799e-01,1.401060997192059010e-01,-1.085284033353286631e-01,4.821119899799369141e-02,1.540915241365667376e-01,1.606993339755043715e-01,1.411520641953431243e-01,6.452026689364541434e-02,1.597944804688387344e-01,-1.026322411506087329e-01,2.560376856190492711e-01,9.736335924356004368e-02,-1.758835707493187211e-02,1.274712714943667113e-01,1.812549355892512370e-01,2.103656059255196720e-01,7.855850943557510929e-03,1.278641895203493084e-01,1.760113493534175011e-01,3.263632064369711983e-01,-6.803934026532928829e-03,2.777240781630841426e-01,-8.697341262916646887e-02,1.712314325243421975e-01,-5.205859670129682482e-02,2.778554048989769765e-01,2.163213799211270438e-01,8.180726607127142280e-02,1.338525887391519599e-02,-1.694843068346568449e-01,7.795696787151712437e-02,1.023235980638230458e-01,3.190102758566468744e-01,4.528502911018789795e-02,3.731133255134491677e-01,2.021055414338941980e-01,-1.407750305921482148e-01,-1.604280370013646539e-01,2.179741565305244322e-01,-3.669368879279530371e-03,2.389282429274129371e-01,-2.885650518186647431e-02,-1.322295603623133142e-01,-3.396623472127619642e-02,2.632474769409823834e-01,8.897292783062846211e-02,-2.004923442422076874e-02,1.671108721982376422e-01,1.073834036715112794e-01,-2.717405850383821653e-01,-1.395479143310841552e-01,1.689319241627885437e-01,1.628203192257131338e-01,6.455444795695759741e-02,2.564191187015181783e-01,1.619228559639940279e-01,1.349405230657698684e-01,1.905489504880229501e-01,2.508459474667442124e-01,-3.845141811318296670e-04,1.793371772669766773e-01,7.965044197670168025e-02,4.209872408213202050e-02,2.660341139834820345e-01,2.095464995875052361e-01,1.370123270468617538e-01,-2.148971509772720431e-02,2.899893341082459067e-02,3.030369403659384508e-02,1.151383235484211426e-01,2.067430770362432141e-02,1.879881836232589476e-01,9.027397413594702436e-02,-1.008056452369563288e-01,-1.863432940903517535e-02,1.696520105127602668e-04,1.664349340339467131e-01,-3.665659299207961463e-02,1.415162233931922808e-01,2.552198246111177515e-01,3.005163838161052370e-01,6.223807451562127224e-02,6.938347433815403309e-02,5.089291565833661823e-02,-3.305221014801570933e-02,2.073319777029407618e-01,5.733142484382444670e-02,7.316605354773603187e-02,1.387396322810080518e-01,5.873152118165996666e-02,1.252604198837871663e-01,2.586783468490490567e-01,-7.680602207830258821e-02,1.547388538887850273e-01,-4.772303681900193217e-02,2.857250786312357516e-01,2.178125218596952128e-01,-1.825049194772539879e-02,2.266566103282670608e-01,2.585871278855403910e-01,2.458755649240395788e-02,6.509308152128200076e-02,6.946582359080176461e-02,-5.719592962607306270e-03,-1.189146059010509106e-02,1.166458572424372148e-01,3.559717721987992745e-02,1.979219530528499305e-01,1.408252709155697821e-02,8.097638186886151057e-02,3.515492222583164184e-01,2.198584270440592445e-02,9.090046137896831691e-02,-4.763754091122605894e-02,1.673359169282574443e-01,1.361989201019611073e-01,1.525757042565512867e-01,9.653401646112799370e-03,-3.408301603699125798e-02,1.872511259675261330e-01,1.597529319670859538e-02,3.235747939172080034e-01,1.584717181453727530e-01,2.136894613314632152e-01,2.259509348896946435e-01,-3.181172082108865012e-02,2.434626887662779959e-01,1.728858522177032508e-01,3.482596652868253928e-01,7.292413422459500735e-03,-3.938607236995612590e-03,6.868850773240507343e-03,-2.257785624880404018e-01,1.931417829183625923e-01,8.658522054203263152e-02,2.579508159717842641e-01,1.232911857580077514e-01,1.585480986415223614e-01,-1.102083967300508671e-01,2.440580694422418151e-01,2.634632722534849814e-01,3.067299255685670412e-01,9.949304793779440576e-03,2.920441918274216397e-01,-1.022452679416115291e-02,2.490109663356575853e-01,2.333353755132498430e-01,4.508162462199170051e-01,2.482184956411602195e-01,2.124646961222564634e-01,-1.044178599185004719e-01,2.289868906886718958e-01,2.326516549126257383e-01,-6.218184022631263741e-02,1.608527957895638516e-01,-1.039527672291344455e-02,2.140361228119823656e-01,1.215662441371657548e-01,1.442165862140004085e-01,1.247620940490729163e-01,1.684559647093227530e-01,8.898652004979707569e-03,1.945118463695845734e-01,1.970401814952892419e-02,1.764096700165244391e-01,5.991087858807529060e-02,-1.043589015001965409e-01,1.976600961208201945e-01,2.812524215191281041e-01,2.411116612597506703e-01,3.097969258729821318e-01,2.193638340708241041e-01,-6.054343198322972202e-04,-1.305009035644410786e-01,8.333379858626273340e-02,5.357166273842355053e-02,5.786411178168623937e-03,-1.611839665870019311e-01,1.631410446139110182e-01,3.042036202475686610e-02,1.893186188822972571e-01,3.174655723184103412e-02,-1.135140020691447621e-01,4.894410394157325782e-03,1.443126605247572747e-01,7.556746725496998884e-02,1.269600061677036429e-01,6.897710750986385531e-02,1.627052392401671099e-01,3.458149176101731753e-02,2.793829894125160127e-02,-1.970373859188584084e-03,1.368559553765685138e-02,-1.056877067045861457e-01,1.150741097514535183e-01,7.883906293586316616e-02,9.136794379287212220e-02,-2.139750748552647283e-02,5.661398880301824615e-02,7.254131507401463674e-02,3.811297389866317997e-02,1.946272361895524106e-01,-1.564698320667261833e-01,1.736553810321302127e-01,2.070117119092295677e-01,2.503560163578579800e-01,-8.395887055701165350e-03,-7.913676388734548761e-02,2.670639886962747692e-02,-1.698102457612194749e-01,9.198853530461051364e-02,2.701613332636396830e-02,8.886109786805887478e-02,-1.019662711444199454e-01,1.731073655791625365e-01,1.860779570776690140e-03,1.478696266803312953e-01,-6.654550023981280205e-02,1.688878140222238589e-01,2.859345555109648607e-01,1.673454167906489876e-01,4.824518964052928495e-03,3.030787959948356286e-02,1.270691781055061365e-01,9.950783770628379710e-02,1.835713469260322472e-01,6.548521865936332564e-02,-1.288042334911880353e-02,-8.341023406360293865e-03,1.340485533203469581e-01,-1.320334534688982243e-02,2.546919557351627339e-01,1.193728861149064568e-01,-1.662521569479841477e-01,2.462632088411466635e-01,1.088170520498642352e-01,1.553413439848527755e-01,-2.227702547193227411e-01,1.661640606864733805e-01,2.526961838400675897e-01,1.656175233729011154e-01,9.245339119677439821e-02,-2.878704188072089484e-02,1.711421705368454949e-01,3.445464137877243121e-02,1.702083836036289224e-02,1.957588003330450743e-01,2.335299935597507925e-01,1.473072995816032404e-01,-1.956728333601673031e-01,3.533657060488222257e-01,1.365685653759605711e-01,2.358621930463521421e-01,9.577275513199660917e-02,2.267392557070046777e-01,2.716222245410756519e-01,2.243439045889607519e-01,-3.160317105677032390e-02,1.403860351827961039e-01,1.726389493990398705e-01,-3.463261744876709042e-02,1.383322732419659529e-01,-5.403524961471900838e-04,2.549239508821879441e-01,-5.408527175767036815e-02,3.127095672118238578e-01,1.367125948490506004e-01,-1.075276132191225337e-02,-6.640363262372787900e-02,-3.350175494526520109e-02,1.316497912061306008e-01,2.730403220966517996e-01,2.878316976637840252e-02,2.691582875023521004e-01,2.763408364653504035e-01,1.198730602603143985e-01,3.769904300675190612e-02,4.591111155623098933e-02,1.894579029839214279e-01,-3.873925811525701091e-02,-1.887685543389748533e-02,1.196904883156800214e-01,-7.982494934026631780e-03,5.029209840002605431e-02,3.835815801532826974e-02,7.220964973985986857e-02,4.018146745797125663e-02,-1.127554469920737518e-01,8.491900226994950757e-03,1.614217668822188756e-01,2.520104744361841287e-01,2.717742542371789360e-01,2.030667391687020207e-01,-1.408145940030021970e-01,2.331251460691024791e-01,9.002796748525097870e-02,1.923110748191266817e-01,-2.670191958660386722e-01,3.055839026350035126e-01,-1.310510096206047616e-02,7.362285834610345081e-02,1.966825067566275731e-01,-8.997223342810826974e-02,1.546447933831115173e-01,1.254421875758698346e-01,1.331883475579188902e-01,1.493245091398290592e-01,-1.960031153298197049e-01,8.193405086717127361e-02,-1.588294942716212410e-01,1.785430254089209745e-01,2.583926210101170073e-01,2.389243009714543675e-01,-1.278617193743654123e-01,1.627183138013673855e-02,1.327969141818394483e-01,2.501326160447576163e-01,1.942810165419407431e-01,2.226031217618148761e-01,3.059138757554861754e-01,1.196328933221785934e-02,3.428742857467907967e-01,-5.036659479606636625e-02,1.954830827903539930e-02,2.503718403489158528e-01,1.515531226954927764e-02,2.860940503378406330e-01,4.243063916685613918e-02,3.380504821377859348e-01,1.119159475255635250e-01,-6.737278888093554963e-02,6.686869257641776809e-02,1.872070156852617129e-01,-4.968287678481882880e-02,1.289564227056572976e-01,-1.460776152919860543e-02,-5.830161697255270385e-03,-2.475400893740611341e-01,2.361258519742205353e-01,8.306553553445564925e-03,2.107007019004372705e-01,2.520259310802021036e-01,-4.711970383824246739e-02,2.215083460599802101e-01,2.891006933906030696e-01,2.351111823140137891e-01,9.714909308203760474e-02,1.693096844897612752e-01,2.150126668759161364e-01,-2.237890461255764296e-01,1.543518391459006850e-02,8.128689603890947024e-02,-4.389453644472319366e-02,-5.089271026108640669e-03,-2.949298905404544244e-02,2.126127077928501308e-01,1.268078102488985059e-01,1.740753614800291116e-01,2.210090783657345237e-01,2.189743194616295408e-01,2.836163614142763953e-02,2.206837208359030689e-01,1.600825164498060893e-01,1.190360274442035654e-01,1.288483752539610616e-01,3.888825692957092323e-02,1.674224251099641347e-01,2.131961331071082766e-01,1.563374844508322592e-01,9.996498267760431378e-03,5.945169905171806546e-01,9.079655714565497762e-03,-4.565465393254152793e-01,7.424575067110409377e-01,-4.424427329015487298e-01,1.906030348000256058e-01,3.211653030069589465e-01,1.140067517274926834e+00,-2.585329675311111020e-01,3.526126462179692278e-01,-3.833989029501456147e-01,2.868545008049566691e-01,6.460553777994846314e-01,3.420488610545883990e-02,-2.312441908425303672e-01,-3.049444497617379568e-01,3.906962387592367025e-01,5.673910801396757630e-01,4.145693236900980239e-01,1.140068374852275968e+00
0.000000000000000000e+00,0.000000000000000000e+00,0.000000000000000000e+00,0.000000000000000000e+00,-6.659954860425194578e-01,-4.462445086276828343e-01,-3.489483850849266489e-01,1.262280231729899782e-01,-1.508969366890584585e-01,-1.810855499279999115e-01,-9.293316751950167487e-02,-5.859846675257120996e-01,1.292816371035078460e-01,6.081841707520398155e-02,-1.720054730486812733e-01,-2.463360353202899422e-01,-2.044981358366592394e-01,-2.674391649573035212e-01,-2.887215554448856469e-01,-2.728285924756901348e-01,-4.734182326663962104e-01,-5.479805654677853965e-01,-2.994216153599235392e-03,-2.292602937693719589e-01,-2.486007159384594489e-01,3.509004891220970923e-02,2.983102033531097597e-01,2.643366032106653774e-01,2.088339310277067817e-01,1.587863241873054276e-01,1.415377798313130486e-01,9.059798574743690991e-02,7.343945849083290123e-02,1.727644586025298135e-02,1.451453980626199458e-01,-6.127383937324720059e-02,2.664644509702312480e-01,1.492756863447117499e-01,2.527084726001936343e-01,2.175358787918083292e-01,-2.931602664992086216e-01,3.552453910269844084e-02,7.259907487873989984e-02,3.311998931612751274e-01,5.900833999698282262e-02
